-0.0000051764451878,0.0000745826627445,0.0001297921838022,0.0001874032893959,0.0002069390086742,0.0001661868276461,0.0000690773761229,-0.0000498999745140,-0.0001378566934410,-0.0001494152464808,-0.0000737426820472,0.0000534566516457,0.0001631966315417,0.0001883405361701,0.0001032086742222,-0.0000554836566731,-0.0002019925511815,-0.0002463508193789,-0.0001481137859129,0.0000524105583153,0.0002476389719838,0.0003189708688799,0.0002072986623486,-0.0000433125087902,-0.0002990483193093,-0.0004061365706640,-0.0002817096891831,0.0000271129031178,0.0003559545094189,0.0005087976123048,0.0003730692798155,-0.0000023723087206,-0.0004182289757719,-0.0006283441510575,-0.0004835190138798,-0.0000325469489783,0.0004856937323099,0.0007662684702860,0.0006154769248808,0.0000796164486021,-0.0005580808889874,-0.0009242247428880,-0.0007716121335212,-0.0001410015752776,0.0006350086931378,0.0011039993324493,0.0009549192219689,0.0002191539867891,-0.0007160584058988,-0.0013075266807934,-0.0011687015554378,-0.0003167990662505,0.0008007914635773,0.0015371347548913,0.0014168251716176,0.0004372635775068,-0.0008884962074707,-0.0017952386862154,-0.0017036132887631,-0.0005841367988305,0.0009785443896989,0.0020848889683874,0.0020342286514796,0.0007617264960662,-0.0010702136394660,-0.0024097893927453,-0.0024149180905617,-0.0009752647588671,0.0011626913403311,0.0027744545803019,0.0028533480821718,0.0012310737079905,-0.0012551025747609,-0.0031847282935193,-0.0033592048942565,-0.0015370858298841,0.0013465563844382,0.0036482685378070,0.0039450669725666,0.0019034710371218,-0.0014361288626481,-0.0041754398250749,-0.0046277072538667,-0.0023437115160264,0.0015228848662531,0.0047806001910473,0.0054302104189028,0.0028762154803440,-0.0016058822476575,-0.0054842390877931,-0.0063853326449652,-0.0035270741194097,0.0016842141518068,0.0063165742036384,0.0075413384085286,0.0043347523854386,-0.0017569781675854,-0.0073238906209854,-0.0089724022218468,-0.0053587076677590,0.0018233800633980,0.0085805580796381,0.0107987571293999,0.0066962769793258,-0.0018828136714446,-0.0102137734949970,-0.0132290770977612,-0.0085195863880940,0.0019340616592901,0.0124578784167174,0.0166571938566131,0.0111614947808119,-0.0019770409902282,-0.0158002995142622,-0.0219300460196766,-0.0153666051453534,0.0020110293495967,0.0214381548095281,0.0312508004544701,0.0232033548022280,-0.0020355815642907,-0.0333085181945276,-0.0527018588317399,-0.0433616484819353,0.0020504040218475,0.0763538282620906,0.1590380705037843,0.2235846111154252,0.2479446464651392,0.2235846111154252,0.1590380705037843,0.0763538282620906,0.0020504040218475,-0.0433616484819353,-0.0527018588317399,-0.0333085181945276,-0.0020355815642907,0.0232033548022280,0.0312508004544701,0.0214381548095281,0.0020110293495967,-0.0153666051453534,-0.0219300460196766,-0.0158002995142622,-0.0019770409902282,0.0111614947808119,0.0166571938566131,0.0124578784167174,0.0019340616592901,-0.0085195863880940,-0.0132290770977612,-0.0102137734949970,-0.0018828136714446,0.0066962769793258,0.0107987571293999,0.0085805580796381,0.0018233800633980,-0.0053587076677590,-0.0089724022218468,-0.0073238906209854,-0.0017569781675854,0.0043347523854386,0.0075413384085286,0.0063165742036384,0.0016842141518068,-0.0035270741194097,-0.0063853326449652,-0.0054842390877931,-0.0016058822476575,0.0028762154803440,0.0054302104189028,0.0047806001910473,0.0015228848662531,-0.0023437115160264,-0.0046277072538667,-0.0041754398250749,-0.0014361288626481,0.0019034710371218,0.0039450669725666,0.0036482685378070,0.0013465563844382,-0.0015370858298841,-0.0033592048942565,-0.0031847282935193,-0.0012551025747609,0.0012310737079905,0.0028533480821718,0.0027744545803019,0.0011626913403311,-0.0009752647588671,-0.0024149180905617,-0.0024097893927453,-0.0010702136394660,0.0007617264960662,0.0020342286514796,0.0020848889683874,0.0009785443896989,-0.0005841367988305,-0.0017036132887631,-0.0017952386862154,-0.0008884962074707,0.0004372635775068,0.0014168251716176,0.0015371347548913,0.0008007914635773,-0.0003167990662505,-0.0011687015554378,-0.0013075266807934,-0.0007160584058988,0.0002191539867891,0.0009549192219689,0.0011039993324493,0.0006350086931378,-0.0001410015752776,-0.0007716121335212,-0.0009242247428880,-0.0005580808889874,0.0000796164486021,0.0006154769248808,0.0007662684702860,0.0004856937323099,-0.0000325469489783,-0.0004835190138798,-0.0006283441510575,-0.0004182289757719,-0.0000023723087206,0.0003730692798155,0.0005087976123048,0.0003559545094189,0.0000271129031178,-0.0002817096891831,-0.0004061365706640,-0.0002990483193093,-0.0000433125087902,0.0002072986623486,0.0003189708688799,0.0002476389719838,0.0000524105583153,-0.0001481137859129,-0.0002463508193789,-0.0002019925511815,-0.0000554836566731,0.0001032086742222,0.0001883405361701,0.0001631966315417,0.0000534566516457,-0.0000737426820472,-0.0001494152464808,-0.0001378566934410,-0.0000498999745140,0.0000690773761229,0.0001661868276461,0.0002069390086742,0.0001874032893959,0.0001297921838022,0.0000745826627445,-0.0000051764451878
